{
    "W1": [
        [
            19.338096649378464,
            18.919535629419478
        ],
        [
            26.726802152349116,
            -7.003475009218289
        ],
        [
            3.8635993101857884,
            -2.7037007469160295
        ],
        [
            14.277649100759977,
            -6.167915016491119
        ],
        [
            -14.109052599436607,
            14.682138575617548
        ],
        [
            -6.868210373744901,
            -3.217070068886953
        ],
        [
            -8.750464000217614,
            2.655792713920171
        ],
        [
            -0.014550420284248336,
            -3.949987024074372
        ],
        [
            -0.47174603626680456,
            26.1976310533312
        ]
    ],
    "b1": [
        [
            -0.35927294743286853
        ],
        [
            1.2928116265993697
        ],
        [
            -7.495687770963531
        ],
        [
            3.152125665925568
        ],
        [
            -0.43049226814995856
        ],
        [
            0.19267062295707404
        ],
        [
            -1.5090069438370175
        ],
        [
            -3.3795908331465054
        ],
        [
            0.25496167780513257
        ]
    ],
    "W2": [
        [
            -16.592921102246514,
            -6.6879274383047695,
            0.6924701437184233,
            -7.29064764556163,
            -16.945825431166128,
            -10.659244154031823,
            -4.606140380599411,
            0.8668429914526113,
            13.71619192534652
        ]
    ],
    "b2": [
        [
            0.4145966670329291
        ]
    ]
}