{
    "W1": [
        [
            18.713178222054545,
            19.134311048068422
        ],
        [
            14.843432385940574,
            -11.67582399024652
        ],
        [
            7.460931330655593,
            -0.7393185240154967
        ],
        [
            7.628050143858776,
            -8.033763003106133
        ],
        [
            -14.1933217108509,
            14.579340349962228
        ],
        [
            -13.318975535942045,
            -9.277441112457366
        ],
        [
            -5.669324498296598,
            -1.734545136067938
        ],
        [
            -2.1972252012259914,
            -4.542405477752691
        ],
        [
            -5.491545811107097,
            25.10291654334659
        ]
    ],
    "b1": [
        [
            2.7569822498802017
        ],
        [
            15.708704328634951
        ],
        [
            -6.2333609250659965
        ],
        [
            2.176542746034606
        ],
        [
            -2.611676488293873
        ],
        [
            -2.76349498082837
        ],
        [
            2.871292214847026
        ],
        [
            -3.447479965612245
        ],
        [
            -5.587127526825011
        ]
    ],
    "W2": [
        [
            -15.795048399982392,
            -8.413031439993416,
            14.027322229997543,
            -12.140401707463669,
            -4.6645512430602185,
            -17.34340836801657,
            -8.743614684291483,
            22.506636525426437,
            7.365084430188461
        ]
    ],
    "b2": [
        [
            31.298705475402045
        ]
    ]
}