{
    "W1": [
        [
            89.27377706660324,
            104.66588674424145
        ],
        [
            4.202388690232814,
            -2.855345128557288
        ],
        [
            -3.8926994302889284,
            -16.64925848672624
        ],
        [
            23.357569979135235,
            -7.042240068669702
        ],
        [
            -4.248200726946991,
            3.138989421588664
        ],
        [
            -3.5410268781119294,
            -16.89855776728062
        ],
        [
            128.74700550771468,
            117.89259242051787
        ],
        [
            -43.50495869168915,
            -73.32477904378901
        ],
        [
            4.436667210665234,
            22.9965370749368
        ]
    ],
    "b1": [
        [
            -48.720827925769974
        ],
        [
            24.48394039178669
        ],
        [
            -17.487152535460563
        ],
        [
            -22.576307383739252
        ],
        [
            -25.90068020109268
        ],
        [
            -11.827563068045645
        ],
        [
            -50.92923286158243
        ],
        [
            31.27763287004138
        ],
        [
            13.986221223141195
        ]
    ],
    "W2": [
        [
            -30978.76666243355,
            17950.400940253778,
            -16475.827128334917,
            -29176.111414340485,
            -17684.193477085646,
            -17651.184575603504,
            -28223.160840856617,
            16561.006731674363,
            17562.22806163048
        ]
    ],
    "b2": [
        [
            53308.87144530153
        ]
    ]
}