{
    "W1": [
        [
            -4.62137858379167,
            2.9836692142686183
        ],
        [
            -3.7879999209908988,
            1.5187556281157557
        ],
        [
            1.275613616203478,
            -4.209359357773847
        ],
        [
            -7.277053785312553,
            -4.178157373181535
        ],
        [
            -0.4960464156183905,
            2.661457037416185
        ],
        [
            -2.701658540952692,
            5.779945279325968
        ],
        [
            -2.8645810870167088,
            -6.182204141898209
        ],
        [
            4.797828954410692,
            2.3932172726922425
        ],
        [
            -5.165130379086099,
            -0.5130370566266448
        ]
    ],
    "b1": [
        [
            -0.6736429118870095
        ],
        [
            -3.6152950875262233
        ],
        [
            -0.055266998838025876
        ],
        [
            0.2040874045734456
        ],
        [
            0.46530160381078367
        ],
        [
            1.2913885026640226
        ],
        [
            -2.9180699835716197
        ],
        [
            -0.16659645736281548
        ],
        [
            2.6072072118704086
        ]
    ],
    "W2": [
        [
            -2.506817608558588,
            -3.7113746998571426,
            3.5967173652412736,
            -5.366686392629184,
            0.7268958223667317,
            3.461412481411032,
            -2.752476783118138,
            -7.064941250826689,
            2.153363838332969
        ]
    ],
    "b2": [
        [
            -6.583701599722015
        ]
    ]
}