{
    "W1": [
        [
            18.244633824716253,
            19.544620892875397
        ],
        [
            13.594712747668444,
            -9.212739404116988
        ],
        [
            6.034855322673153,
            -2.219541215652402
        ],
        [
            4.393699829411035,
            3.8423882725903424
        ],
        [
            -10.239208635040601,
            17.177244709805194
        ],
        [
            -14.873416070792347,
            -10.582571300046464
        ],
        [
            -7.527147399914867,
            3.154559764371835
        ],
        [
            0.12807141556248802,
            -4.804678773087246
        ],
        [
            -5.544097219610773,
            25.399923168474444
        ]
    ],
    "b1": [
        [
            -1.863513142161087
        ],
        [
            18.181754330318622
        ],
        [
            -8.743627508298507
        ],
        [
            -2.465258231036502
        ],
        [
            -9.393822743247599
        ],
        [
            1.339344207484079
        ],
        [
            -6.834514715798111
        ],
        [
            -2.4577071313566243
        ],
        [
            -3.3505293932400946
        ]
    ],
    "W2": [
        [
            -12.151577142258697,
            -4.22209076054013,
            18.27677630419288,
            -20.50310596998211,
            -12.869119551541772,
            -21.590934207610097,
            -9.934628217553934,
            26.634017531870775,
            3.7402030323850375
        ]
    ],
    "b2": [
        [
            26.73872880671867
        ]
    ]
}