{
    "W1": [
        [
            -3.6490205195507768,
            1.4619710752634167
        ],
        [
            -0.2948441291620687,
            0.400251050933911
        ],
        [
            2.030032957170531,
            -3.366678043900776
        ],
        [
            -5.394591499197588,
            -4.589564299003043
        ],
        [
            -0.9662663759352905,
            2.5964639405924466
        ],
        [
            -2.2758178579942534,
            4.474988351426112
        ],
        [
            -0.20108445399155023,
            -7.7288460348193055
        ],
        [
            4.887502685391892,
            4.956849097903482
        ],
        [
            -6.1726366547589615,
            2.4996052250710417
        ]
    ],
    "b1": [
        [
            -0.017170581917512393
        ],
        [
            -2.9605112862212537
        ],
        [
            -0.6943131735659251
        ],
        [
            -0.16464940964225397
        ],
        [
            -0.23909245573108842
        ],
        [
            1.195263431244205
        ],
        [
            -0.09734154296545565
        ],
        [
            0.17190449178764125
        ],
        [
            0.3405111559688239
        ]
    ],
    "W2": [
        [
            -2.689751439702125,
            -4.095901532517495,
            3.8045517944936593,
            -5.265502027335402,
            0.5211337671317825,
            2.2754612932382643,
            -2.1597037394535916,
            -6.801902291711214,
            2.8433818045451393
        ]
    ],
    "b2": [
        [
            -3.9791783030078234
        ]
    ]
}