{
    "W1": [
        [
            0.008387701719349713,
            0.04402868199954606
        ],
        [
            0.005646488629887095,
            0.030158191869473883
        ],
        [
            -0.07829401541828693,
            1.085523116264649
        ],
        [
            2.301445600726817,
            3.623458762933817
        ],
        [
            0.011303811066493299,
            0.05728044323966027
        ],
        [
            2.535191953494675,
            3.7331624705418354
        ],
        [
            0.0065306363897566075,
            0.034737405486585
        ],
        [
            3.825619901641311,
            -2.537826544324031
        ],
        [
            -3.847953269436869,
            2.678227881601333
        ]
    ],
    "b1": [
        [
            -0.0008055270210475715
        ],
        [
            -0.00054948283506859
        ],
        [
            -0.010969426519634836
        ],
        [
            3.0829755874972826
        ],
        [
            -0.0010567564472539071
        ],
        [
            -3.2278491655339354
        ],
        [
            -0.0006335438670696426
        ],
        [
            -3.2866070310524482
        ],
        [
            -3.4190109532341997
        ]
    ],
    "W2": [
        [
            -0.000454443489533131,
            -0.0003086153472802258,
            -0.02526408432126161,
            5.904771511763471,
            -0.000600122119156185,
            -5.730828327270563,
            -0.0003562665292975117,
            -5.82262741475933,
            -6.063460079505653
        ]
    ],
    "b2": [
        [
            -14.524486318238266
        ]
    ]
}